"Step","ctrl_cost 0.5 ant box weight 1 - valid_returns","ctrl_cost 0.5 ant box weight 1 - valid_returns__MIN","ctrl_cost 0.5 ant box weight 1 - valid_returns__MAX"
"0","-180.3484344482422","-180.3484344482422","-180.3484344482422"
"1","-177.8506622314453","-177.8506622314453","-177.8506622314453"
"2","-180.50643920898438","-180.50643920898438","-180.50643920898438"
"3","-177.14674377441406","-177.14674377441406","-177.14674377441406"
"4","-177.1657257080078","-177.1657257080078","-177.1657257080078"
"5","-178.19009399414062","-178.19009399414062","-178.19009399414062"
"6","-178.95590209960938","-178.95590209960938","-178.95590209960938"
"7","-174.2230224609375","-174.2230224609375","-174.2230224609375"
"8","-178.64085388183594","-178.64085388183594","-178.64085388183594"
"9","-174.7959747314453","-174.7959747314453","-174.7959747314453"
"10","-174.97898864746094","-174.97898864746094","-174.97898864746094"
"11","-175.47909545898438","-175.47909545898438","-175.47909545898438"
"12","-175.8064422607422","-175.8064422607422","-175.8064422607422"
"13","-175.26019287109375","-175.26019287109375","-175.26019287109375"
"14","-175.6670379638672","-175.6670379638672","-175.6670379638672"
"15","-173.57862854003906","-173.57862854003906","-173.57862854003906"
"16","-173.1501922607422","-173.1501922607422","-173.1501922607422"
"17","-173.80836486816406","-173.80836486816406","-173.80836486816406"
"18","-173.69593811035156","-173.69593811035156","-173.69593811035156"
"19","-174.11204528808594","-174.11204528808594","-174.11204528808594"
"20","-173.0522918701172","-173.0522918701172","-173.0522918701172"
"21","-173.58502197265625","-173.58502197265625","-173.58502197265625"
"22","-169.54937744140625","-169.54937744140625","-169.54937744140625"
"23","-173.63143920898438","-173.63143920898438","-173.63143920898438"
"24","-172.64376831054688","-172.64376831054688","-172.64376831054688"
"25","-171.60482788085938","-171.60482788085938","-171.60482788085938"
"26","-169.96719360351562","-169.96719360351562","-169.96719360351562"
"27","-170.6804656982422","-170.6804656982422","-170.6804656982422"
"28","-173.1544189453125","-173.1544189453125","-173.1544189453125"
"29","-172.85728454589844","-172.85728454589844","-172.85728454589844"
"30","-171.22628784179688","-171.22628784179688","-171.22628784179688"
"31","-170.95883178710938","-170.95883178710938","-170.95883178710938"
"32","-170.7420654296875","-170.7420654296875","-170.7420654296875"
"33","-170.376953125","-170.376953125","-170.376953125"
"34","-169.21719360351562","-169.21719360351562","-169.21719360351562"
"35","-168.83863830566406","-168.83863830566406","-168.83863830566406"
"36","-169.25291442871094","-169.25291442871094","-169.25291442871094"
"37","-171.52774047851562","-171.52774047851562","-171.52774047851562"
"38","-168.94012451171875","-168.94012451171875","-168.94012451171875"
"39","-169.7933807373047","-169.7933807373047","-169.7933807373047"
"40","-170.1115264892578","-170.1115264892578","-170.1115264892578"
"41","-167.03402709960938","-167.03402709960938","-167.03402709960938"
"42","-167.11740112304688","-167.11740112304688","-167.11740112304688"
"43","-167.54225158691406","-167.54225158691406","-167.54225158691406"
"44","-169.20640563964844","-169.20640563964844","-169.20640563964844"
"45","-168.0565948486328","-168.0565948486328","-168.0565948486328"
"46","-170.4619903564453","-170.4619903564453","-170.4619903564453"
"47","-167.4552001953125","-167.4552001953125","-167.4552001953125"
"48","-170.1425018310547","-170.1425018310547","-170.1425018310547"
"49","-165.9829864501953","-165.9829864501953","-165.9829864501953"
"50","-166.822265625","-166.822265625","-166.822265625"
"51","-167.6526336669922","-167.6526336669922","-167.6526336669922"
"52","-166.6042938232422","-166.6042938232422","-166.6042938232422"
"53","-169.4034423828125","-169.4034423828125","-169.4034423828125"
"54","-171.75877380371094","-171.75877380371094","-171.75877380371094"
"55","-167.8472442626953","-167.8472442626953","-167.8472442626953"
"56","-169.41310119628906","-169.41310119628906","-169.41310119628906"
"57","-168.9833526611328","-168.9833526611328","-168.9833526611328"
"58","-166.13128662109375","-166.13128662109375","-166.13128662109375"
"59","-168.04336547851562","-168.04336547851562","-168.04336547851562"
"60","-169.0517578125","-169.0517578125","-169.0517578125"
"61","-169.34422302246094","-169.34422302246094","-169.34422302246094"
"62","-168.20626831054688","-168.20626831054688","-168.20626831054688"
"63","-164.6432647705078","-164.6432647705078","-164.6432647705078"
"64","-167.45021057128906","-167.45021057128906","-167.45021057128906"
"65","-166.49964904785156","-166.49964904785156","-166.49964904785156"
"66","-167.35964965820312","-167.35964965820312","-167.35964965820312"
"67","-166.0967559814453","-166.0967559814453","-166.0967559814453"
"68","-167.06097412109375","-167.06097412109375","-167.06097412109375"
"69","-167.46359252929688","-167.46359252929688","-167.46359252929688"
"70","-169.01702880859375","-169.01702880859375","-169.01702880859375"
"71","-168.10922241210938","-168.10922241210938","-168.10922241210938"
"72","-168.72926330566406","-168.72926330566406","-168.72926330566406"
"73","-164.70046997070312","-164.70046997070312","-164.70046997070312"
"74","-167.9005889892578","-167.9005889892578","-167.9005889892578"
"75","-166.50674438476562","-166.50674438476562","-166.50674438476562"
"76","-166.22377014160156","-166.22377014160156","-166.22377014160156"
"77","-170.27406311035156","-170.27406311035156","-170.27406311035156"
"78","-167.58572387695312","-167.58572387695312","-167.58572387695312"
"79","-168.02183532714844","-168.02183532714844","-168.02183532714844"
"80","-167.6721649169922","-167.6721649169922","-167.6721649169922"
"81","-164.43284606933594","-164.43284606933594","-164.43284606933594"
"82","-168.7010498046875","-168.7010498046875","-168.7010498046875"
"83","-167.73764038085938","-167.73764038085938","-167.73764038085938"
"84","-168.60128784179688","-168.60128784179688","-168.60128784179688"
"85","-169.20138549804688","-169.20138549804688","-169.20138549804688"
"86","-169.06182861328125","-169.06182861328125","-169.06182861328125"
"87","-168.27273559570312","-168.27273559570312","-168.27273559570312"
"88","-168.37576293945312","-168.37576293945312","-168.37576293945312"
"89","-166.20359802246094","-166.20359802246094","-166.20359802246094"
"90","-166.98387145996094","-166.98387145996094","-166.98387145996094"
"91","-169.17977905273438","-169.17977905273438","-169.17977905273438"
"92","-167.10777282714844","-167.10777282714844","-167.10777282714844"
"93","-166.41575622558594","-166.41575622558594","-166.41575622558594"
"94","-167.69265747070312","-167.69265747070312","-167.69265747070312"
"95","-165.6689453125","-165.6689453125","-165.6689453125"
"96","-165.7354278564453","-165.7354278564453","-165.7354278564453"
"97","-168.07977294921875","-168.07977294921875","-168.07977294921875"
"98","-164.75144958496094","-164.75144958496094","-164.75144958496094"
"99","-165.98715209960938","-165.98715209960938","-165.98715209960938"
"100","-165.6282196044922","-165.6282196044922","-165.6282196044922"
"101","-165.71421813964844","-165.71421813964844","-165.71421813964844"
"102","-167.7138671875","-167.7138671875","-167.7138671875"
"103","-167.7119140625","-167.7119140625","-167.7119140625"
"104","-167.22242736816406","-167.22242736816406","-167.22242736816406"
"105","-165.2939910888672","-165.2939910888672","-165.2939910888672"
"106","-166.03265380859375","-166.03265380859375","-166.03265380859375"
"107","-164.84327697753906","-164.84327697753906","-164.84327697753906"
"108","-166.92129516601562","-166.92129516601562","-166.92129516601562"
"109","-165.54917907714844","-165.54917907714844","-165.54917907714844"
"110","-164.38092041015625","-164.38092041015625","-164.38092041015625"
"111","-167.18882751464844","-167.18882751464844","-167.18882751464844"
"112","-164.25535583496094","-164.25535583496094","-164.25535583496094"
"113","-166.83421325683594","-166.83421325683594","-166.83421325683594"
"114","-163.79566955566406","-163.79566955566406","-163.79566955566406"
"115","-167.68812561035156","-167.68812561035156","-167.68812561035156"
"116","-168.72640991210938","-168.72640991210938","-168.72640991210938"
"117","-165.83175659179688","-165.83175659179688","-165.83175659179688"
"118","-164.74978637695312","-164.74978637695312","-164.74978637695312"
"119","-164.6001739501953","-164.6001739501953","-164.6001739501953"
"120","-167.2118377685547","-167.2118377685547","-167.2118377685547"
"121","-165.16175842285156","-165.16175842285156","-165.16175842285156"
"122","-166.2941436767578","-166.2941436767578","-166.2941436767578"
"123","-162.5283966064453","-162.5283966064453","-162.5283966064453"
"124","-164.00253295898438","-164.00253295898438","-164.00253295898438"
"125","-164.13201904296875","-164.13201904296875","-164.13201904296875"
"126","-165.15164184570312","-165.15164184570312","-165.15164184570312"
"127","-165.51409912109375","-165.51409912109375","-165.51409912109375"
"128","-164.86395263671875","-164.86395263671875","-164.86395263671875"
"129","-166.5440673828125","-166.5440673828125","-166.5440673828125"
"130","-163.8343963623047","-163.8343963623047","-163.8343963623047"
"131","-164.77198791503906","-164.77198791503906","-164.77198791503906"
"132","-163.97503662109375","-163.97503662109375","-163.97503662109375"
"133","-164.3438720703125","-164.3438720703125","-164.3438720703125"
"134","-164.4880828857422","-164.4880828857422","-164.4880828857422"
"135","-159.7647247314453","-159.7647247314453","-159.7647247314453"
"136","-165.66539001464844","-165.66539001464844","-165.66539001464844"
"137","-163.63722229003906","-163.63722229003906","-163.63722229003906"
"138","-162.72607421875","-162.72607421875","-162.72607421875"
"139","-162.3787078857422","-162.3787078857422","-162.3787078857422"
"140","-162.11001586914062","-162.11001586914062","-162.11001586914062"
"141","-161.5874481201172","-161.5874481201172","-161.5874481201172"
"142","-163.00790405273438","-163.00790405273438","-163.00790405273438"
"143","-163.90269470214844","-163.90269470214844","-163.90269470214844"
"144","-161.63165283203125","-161.63165283203125","-161.63165283203125"
"145","-159.6487274169922","-159.6487274169922","-159.6487274169922"
"146","-163.7606964111328","-163.7606964111328","-163.7606964111328"
"147","-163.25921630859375","-163.25921630859375","-163.25921630859375"
"148","-161.36724853515625","-161.36724853515625","-161.36724853515625"
"149","-161.1952667236328","-161.1952667236328","-161.1952667236328"
"150","-162.16958618164062","-162.16958618164062","-162.16958618164062"
"151","-162.88690185546875","-162.88690185546875","-162.88690185546875"
"152","-161.6576690673828","-161.6576690673828","-161.6576690673828"
"153","-160.5199432373047","-160.5199432373047","-160.5199432373047"
"154","-157.92347717285156","-157.92347717285156","-157.92347717285156"
"155","-161.10922241210938","-161.10922241210938","-161.10922241210938"
"156","-161.44216918945312","-161.44216918945312","-161.44216918945312"
"157","-160.3842315673828","-160.3842315673828","-160.3842315673828"
"158","-159.96287536621094","-159.96287536621094","-159.96287536621094"
"159","-160.3561553955078","-160.3561553955078","-160.3561553955078"
"160","-160.61016845703125","-160.61016845703125","-160.61016845703125"
"161","-159.96380615234375","-159.96380615234375","-159.96380615234375"
"162","-160.46240234375","-160.46240234375","-160.46240234375"
"163","-158.11253356933594","-158.11253356933594","-158.11253356933594"
"164","-158.58035278320312","-158.58035278320312","-158.58035278320312"
"165","-158.6351318359375","-158.6351318359375","-158.6351318359375"
"166","-159.0175018310547","-159.0175018310547","-159.0175018310547"
"167","-160.82008361816406","-160.82008361816406","-160.82008361816406"
"168","-160.06759643554688","-160.06759643554688","-160.06759643554688"
"169","-158.22483825683594","-158.22483825683594","-158.22483825683594"
"170","-158.15582275390625","-158.15582275390625","-158.15582275390625"
"171","-158.3552703857422","-158.3552703857422","-158.3552703857422"
"172","-157.89901733398438","-157.89901733398438","-157.89901733398438"
"173","-158.0778350830078","-158.0778350830078","-158.0778350830078"
"174","-156.73858642578125","-156.73858642578125","-156.73858642578125"
"175","-155.97344970703125","-155.97344970703125","-155.97344970703125"
"176","-159.99383544921875","-159.99383544921875","-159.99383544921875"
"177","-157.53883361816406","-157.53883361816406","-157.53883361816406"
"178","-153.99618530273438","-153.99618530273438","-153.99618530273438"
"179","-157.4778289794922","-157.4778289794922","-157.4778289794922"
"180","-156.95840454101562","-156.95840454101562","-156.95840454101562"
"181","-156.48867797851562","-156.48867797851562","-156.48867797851562"
"182","-156.74391174316406","-156.74391174316406","-156.74391174316406"
"183","-153.46636962890625","-153.46636962890625","-153.46636962890625"
"184","-154.7677459716797","-154.7677459716797","-154.7677459716797"
"185","-155.80067443847656","-155.80067443847656","-155.80067443847656"
"186","-152.7429656982422","-152.7429656982422","-152.7429656982422"
"187","-154.88812255859375","-154.88812255859375","-154.88812255859375"
"188","-155.7456512451172","-155.7456512451172","-155.7456512451172"
"189","-153.6955108642578","-153.6955108642578","-153.6955108642578"
"190","-154.8927001953125","-154.8927001953125","-154.8927001953125"
"191","-154.7735137939453","-154.7735137939453","-154.7735137939453"
"192","-155.60177612304688","-155.60177612304688","-155.60177612304688"
"193","-156.14910888671875","-156.14910888671875","-156.14910888671875"
"194","-153.69140625","-153.69140625","-153.69140625"
"195","-155.9757843017578","-155.9757843017578","-155.9757843017578"
"196","-155.85238647460938","-155.85238647460938","-155.85238647460938"
"197","-156.92433166503906","-156.92433166503906","-156.92433166503906"
"198","-155.08966064453125","-155.08966064453125","-155.08966064453125"
"199","-155.57974243164062","-155.57974243164062","-155.57974243164062"
"200","-155.66845703125","-155.66845703125","-155.66845703125"
"201","-155.34750366210938","-155.34750366210938","-155.34750366210938"
"202","-153.7954864501953","-153.7954864501953","-153.7954864501953"
"203","-155.87351989746094","-155.87351989746094","-155.87351989746094"
"204","-152.47796630859375","-152.47796630859375","-152.47796630859375"
"205","-155.1984405517578","-155.1984405517578","-155.1984405517578"
"206","-153.7548828125","-153.7548828125","-153.7548828125"
"207","-153.5240478515625","-153.5240478515625","-153.5240478515625"
"208","-152.2777557373047","-152.2777557373047","-152.2777557373047"
"209","-154.24789428710938","-154.24789428710938","-154.24789428710938"
"210","-152.2259521484375","-152.2259521484375","-152.2259521484375"
"211","-153.85060119628906","-153.85060119628906","-153.85060119628906"
"212","-152.1884307861328","-152.1884307861328","-152.1884307861328"
"213","-155.3690948486328","-155.3690948486328","-155.3690948486328"
"214","-156.5172882080078","-156.5172882080078","-156.5172882080078"
"215","-151.64141845703125","-151.64141845703125","-151.64141845703125"
"216","-152.9327850341797","-152.9327850341797","-152.9327850341797"
"217","-149.77699279785156","-149.77699279785156","-149.77699279785156"
"218","-150.74337768554688","-150.74337768554688","-150.74337768554688"
"219","-150.57705688476562","-150.57705688476562","-150.57705688476562"
"220","-149.0572509765625","-149.0572509765625","-149.0572509765625"
"221","-150.1675567626953","-150.1675567626953","-150.1675567626953"
"222","-150.25335693359375","-150.25335693359375","-150.25335693359375"
"223","-151.3436279296875","-151.3436279296875","-151.3436279296875"
"224","-148.2900390625","-148.2900390625","-148.2900390625"
"225","-150.9268798828125","-150.9268798828125","-150.9268798828125"
"226","-150.82046508789062","-150.82046508789062","-150.82046508789062"
"227","-149.44361877441406","-149.44361877441406","-149.44361877441406"
"228","-148.25717163085938","-148.25717163085938","-148.25717163085938"
"229","-148.8718719482422","-148.8718719482422","-148.8718719482422"
"230","-150.85487365722656","-150.85487365722656","-150.85487365722656"
"231","-146.39697265625","-146.39697265625","-146.39697265625"
"232","-150.02027893066406","-150.02027893066406","-150.02027893066406"
"233","-149.35601806640625","-149.35601806640625","-149.35601806640625"
"234","-150.5759735107422","-150.5759735107422","-150.5759735107422"
"235","-149.4384307861328","-149.4384307861328","-149.4384307861328"
"236","-149.12799072265625","-149.12799072265625","-149.12799072265625"
"237","-148.37591552734375","-148.37591552734375","-148.37591552734375"
"238","-150.14654541015625","-150.14654541015625","-150.14654541015625"
"239","-149.0733184814453","-149.0733184814453","-149.0733184814453"
"240","-146.07635498046875","-146.07635498046875","-146.07635498046875"
"241","-147.2765655517578","-147.2765655517578","-147.2765655517578"
"242","-149.27174377441406","-149.27174377441406","-149.27174377441406"
"243","-148.02374267578125","-148.02374267578125","-148.02374267578125"
"244","-147.01463317871094","-147.01463317871094","-147.01463317871094"
"245","-145.78538513183594","-145.78538513183594","-145.78538513183594"
"246","-147.7773895263672","-147.7773895263672","-147.7773895263672"
"247","-144.91844177246094","-144.91844177246094","-144.91844177246094"
"248","-143.18310546875","-143.18310546875","-143.18310546875"
"249","-149.141357421875","-149.141357421875","-149.141357421875"
"250","-145.60328674316406","-145.60328674316406","-145.60328674316406"
"251","-147.33340454101562","-147.33340454101562","-147.33340454101562"
"252","-147.19210815429688","-147.19210815429688","-147.19210815429688"
"253","-143.71022033691406","-143.71022033691406","-143.71022033691406"
"254","-144.0355224609375","-144.0355224609375","-144.0355224609375"
"255","-145.9550018310547","-145.9550018310547","-145.9550018310547"
"256","-144.02627563476562","-144.02627563476562","-144.02627563476562"
"257","-146.15623474121094","-146.15623474121094","-146.15623474121094"
"258","-145.4353485107422","-145.4353485107422","-145.4353485107422"
"259","-145.68765258789062","-145.68765258789062","-145.68765258789062"
"260","-144.070556640625","-144.070556640625","-144.070556640625"
"261","-145.14627075195312","-145.14627075195312","-145.14627075195312"
"262","-142.7524871826172","-142.7524871826172","-142.7524871826172"
"263","-141.50836181640625","-141.50836181640625","-141.50836181640625"
"264","-145.67343139648438","-145.67343139648438","-145.67343139648438"
"265","-143.9940948486328","-143.9940948486328","-143.9940948486328"
"266","-142.27944946289062","-142.27944946289062","-142.27944946289062"
"267","-143.9552764892578","-143.9552764892578","-143.9552764892578"
"268","-142.34616088867188","-142.34616088867188","-142.34616088867188"
"269","-144.36460876464844","-144.36460876464844","-144.36460876464844"
"270","-143.6248016357422","-143.6248016357422","-143.6248016357422"
"271","-142.0874786376953","-142.0874786376953","-142.0874786376953"
"272","-143.55784606933594","-143.55784606933594","-143.55784606933594"
"273","-142.7200927734375","-142.7200927734375","-142.7200927734375"
"274","-141.60739135742188","-141.60739135742188","-141.60739135742188"
"275","-140.53994750976562","-140.53994750976562","-140.53994750976562"
"276","-142.6970672607422","-142.6970672607422","-142.6970672607422"
"277","-140.18756103515625","-140.18756103515625","-140.18756103515625"
"278","-141.22874450683594","-141.22874450683594","-141.22874450683594"
"279","-142.27304077148438","-142.27304077148438","-142.27304077148438"
"280","-141.4230499267578","-141.4230499267578","-141.4230499267578"
"281","-139.00592041015625","-139.00592041015625","-139.00592041015625"
"282","-140.31158447265625","-140.31158447265625","-140.31158447265625"
"283","-139.73565673828125","-139.73565673828125","-139.73565673828125"
"284","-140.10308837890625","-140.10308837890625","-140.10308837890625"
"285","-142.64988708496094","-142.64988708496094","-142.64988708496094"
"286","-140.5111846923828","-140.5111846923828","-140.5111846923828"
"287","-142.24826049804688","-142.24826049804688","-142.24826049804688"
"288","-139.634033203125","-139.634033203125","-139.634033203125"
"289","-139.38539123535156","-139.38539123535156","-139.38539123535156"
"290","-139.38552856445312","-139.38552856445312","-139.38552856445312"
"291","-140.45216369628906","-140.45216369628906","-140.45216369628906"
"292","-137.12770080566406","-137.12770080566406","-137.12770080566406"
"293","-141.13816833496094","-141.13816833496094","-141.13816833496094"
"294","-137.18031311035156","-137.18031311035156","-137.18031311035156"
"295","-140.22735595703125","-140.22735595703125","-140.22735595703125"
"296","-139.22030639648438","-139.22030639648438","-139.22030639648438"
"297","-139.7959442138672","-139.7959442138672","-139.7959442138672"
"298","-137.9907684326172","-137.9907684326172","-137.9907684326172"
"299","-138.91921997070312","-138.91921997070312","-138.91921997070312"
"300","-138.61488342285156","-138.61488342285156","-138.61488342285156"
"301","-138.42405700683594","-138.42405700683594","-138.42405700683594"
"302","-137.45323181152344","-137.45323181152344","-137.45323181152344"
"303","-136.76890563964844","-136.76890563964844","-136.76890563964844"
"304","-136.54342651367188","-136.54342651367188","-136.54342651367188"
"305","-135.47930908203125","-135.47930908203125","-135.47930908203125"
"306","-134.89999389648438","-134.89999389648438","-134.89999389648438"
"307","-136.2528076171875","-136.2528076171875","-136.2528076171875"
"308","-134.7504119873047","-134.7504119873047","-134.7504119873047"
"309","-133.53269958496094","-133.53269958496094","-133.53269958496094"
"310","-134.23617553710938","-134.23617553710938","-134.23617553710938"
"311","-134.72406005859375","-134.72406005859375","-134.72406005859375"
"312","-132.85414123535156","-132.85414123535156","-132.85414123535156"
"313","-133.54995727539062","-133.54995727539062","-133.54995727539062"
"314","-133.15184020996094","-133.15184020996094","-133.15184020996094"
"315","-132.597412109375","-132.597412109375","-132.597412109375"
"316","-132.0523681640625","-132.0523681640625","-132.0523681640625"
"317","-131.8772430419922","-131.8772430419922","-131.8772430419922"
"318","-131.47064208984375","-131.47064208984375","-131.47064208984375"
"319","-131.89306640625","-131.89306640625","-131.89306640625"
"320","-130.4613037109375","-130.4613037109375","-130.4613037109375"
"321","-129.22865295410156","-129.22865295410156","-129.22865295410156"
"322","-130.33267211914062","-130.33267211914062","-130.33267211914062"
"323","-129.5335693359375","-129.5335693359375","-129.5335693359375"
"324","-128.88771057128906","-128.88771057128906","-128.88771057128906"
"325","-129.54165649414062","-129.54165649414062","-129.54165649414062"
"326","-132.5931854248047","-132.5931854248047","-132.5931854248047"
"327","-128.1311492919922","-128.1311492919922","-128.1311492919922"
"328","-127.27605438232422","-127.27605438232422","-127.27605438232422"
"329","-125.59681701660156","-125.59681701660156","-125.59681701660156"
"330","-125.58443450927734","-125.58443450927734","-125.58443450927734"
"331","-127.74103546142578","-127.74103546142578","-127.74103546142578"
"332","-126.27295684814453","-126.27295684814453","-126.27295684814453"
"333","-126.51045989990234","-126.51045989990234","-126.51045989990234"
"334","-126.63470458984375","-126.63470458984375","-126.63470458984375"
"335","-124.36064147949219","-124.36064147949219","-124.36064147949219"
"336","-125.12179565429688","-125.12179565429688","-125.12179565429688"
"337","-124.94506072998047","-124.94506072998047","-124.94506072998047"
"338","-123.98597717285156","-123.98597717285156","-123.98597717285156"
"339","-124.630615234375","-124.630615234375","-124.630615234375"
"340","-122.09712219238281","-122.09712219238281","-122.09712219238281"
"341","-123.48670959472656","-123.48670959472656","-123.48670959472656"
"342","-119.9617691040039","-119.9617691040039","-119.9617691040039"
"343","-122.8016128540039","-122.8016128540039","-122.8016128540039"
"344","-122.82384490966797","-122.82384490966797","-122.82384490966797"
"345","-121.13119506835938","-121.13119506835938","-121.13119506835938"
"346","-121.94043731689453","-121.94043731689453","-121.94043731689453"
"347","-120.42945098876953","-120.42945098876953","-120.42945098876953"
"348","-119.70519256591797","-119.70519256591797","-119.70519256591797"
"349","-119.94684600830078","-119.94684600830078","-119.94684600830078"
"350","-118.82261657714844","-118.82261657714844","-118.82261657714844"
"351","-118.95775604248047","-118.95775604248047","-118.95775604248047"
"352","-119.36495971679688","-119.36495971679688","-119.36495971679688"
"353","-119.59005737304688","-119.59005737304688","-119.59005737304688"
"354","-117.33667755126953","-117.33667755126953","-117.33667755126953"
"355","-116.97607421875","-116.97607421875","-116.97607421875"
"356","-117.35882568359375","-117.35882568359375","-117.35882568359375"
"357","-118.91519165039062","-118.91519165039062","-118.91519165039062"
"358","-115.79610443115234","-115.79610443115234","-115.79610443115234"
"359","-117.49103546142578","-117.49103546142578","-117.49103546142578"
"360","-115.76577758789062","-115.76577758789062","-115.76577758789062"
"361","-117.03244018554688","-117.03244018554688","-117.03244018554688"
"362","-115.91276550292969","-115.91276550292969","-115.91276550292969"
"363","-114.8827896118164","-114.8827896118164","-114.8827896118164"
"364","-115.35089874267578","-115.35089874267578","-115.35089874267578"
"365","-114.55841827392578","-114.55841827392578","-114.55841827392578"
"366","-114.35456848144531","-114.35456848144531","-114.35456848144531"
"367","-113.0381851196289","-113.0381851196289","-113.0381851196289"
"368","-111.4109878540039","-111.4109878540039","-111.4109878540039"
"369","-110.43899536132812","-110.43899536132812","-110.43899536132812"
"370","-110.41915130615234","-110.41915130615234","-110.41915130615234"
"371","-110.73783111572266","-110.73783111572266","-110.73783111572266"
"372","-111.84626007080078","-111.84626007080078","-111.84626007080078"
"373","-109.45944213867188","-109.45944213867188","-109.45944213867188"
"374","-109.69792175292969","-109.69792175292969","-109.69792175292969"
"375","-108.27720642089844","-108.27720642089844","-108.27720642089844"
"376","-107.99581146240234","-107.99581146240234","-107.99581146240234"
"377","-109.58544921875","-109.58544921875","-109.58544921875"
"378","-106.40213012695312","-106.40213012695312","-106.40213012695312"
"379","-105.56060791015625","-105.56060791015625","-105.56060791015625"
"380","-105.13581085205078","-105.13581085205078","-105.13581085205078"
"381","-104.65203094482422","-104.65203094482422","-104.65203094482422"
"382","-104.556640625","-104.556640625","-104.556640625"
"383","-104.08663940429688","-104.08663940429688","-104.08663940429688"
"384","-105.4616928100586","-105.4616928100586","-105.4616928100586"
"385","-102.9159927368164","-102.9159927368164","-102.9159927368164"
"386","-103.54757690429688","-103.54757690429688","-103.54757690429688"
"387","-104.03868103027344","-104.03868103027344","-104.03868103027344"
"388","-102.09976196289062","-102.09976196289062","-102.09976196289062"
"389","-102.60906982421875","-102.60906982421875","-102.60906982421875"
"390","-102.6484603881836","-102.6484603881836","-102.6484603881836"
"391","-100.58106231689453","-100.58106231689453","-100.58106231689453"
"392","-99.8486557006836","-99.8486557006836","-99.8486557006836"
"393","-100.2609634399414","-100.2609634399414","-100.2609634399414"
"394","-99.52039337158203","-99.52039337158203","-99.52039337158203"
"395","-97.92442321777344","-97.92442321777344","-97.92442321777344"
"396","-96.51512908935547","-96.51512908935547","-96.51512908935547"
"397","-98.09288787841797","-98.09288787841797","-98.09288787841797"
"398","-96.37943267822266","-96.37943267822266","-96.37943267822266"
"399","-96.1671371459961","-96.1671371459961","-96.1671371459961"
"400","-95.62190246582031","-95.62190246582031","-95.62190246582031"
"401","-93.95669555664062","-93.95669555664062","-93.95669555664062"
"402","-93.63128662109375","-93.63128662109375","-93.63128662109375"
"403","-93.23481750488281","-93.23481750488281","-93.23481750488281"
"404","-92.96945190429688","-92.96945190429688","-92.96945190429688"
"405","-92.79252624511719","-92.79252624511719","-92.79252624511719"
"406","-92.72303771972656","-92.72303771972656","-92.72303771972656"
"407","-89.8602523803711","-89.8602523803711","-89.8602523803711"
"408","-90.32038879394531","-90.32038879394531","-90.32038879394531"
"409","-91.7893295288086","-91.7893295288086","-91.7893295288086"
"410","-87.11544036865234","-87.11544036865234","-87.11544036865234"
"411","-87.9935073852539","-87.9935073852539","-87.9935073852539"
"412","-86.76332092285156","-86.76332092285156","-86.76332092285156"
"413","-87.64354705810547","-87.64354705810547","-87.64354705810547"
"414","-85.4009780883789","-85.4009780883789","-85.4009780883789"
"415","-84.4398422241211","-84.4398422241211","-84.4398422241211"
"416","-84.0566635131836","-84.0566635131836","-84.0566635131836"
"417","-83.0013656616211","-83.0013656616211","-83.0013656616211"
"418","-81.66415405273438","-81.66415405273438","-81.66415405273438"
"419","-81.5075912475586","-81.5075912475586","-81.5075912475586"
"420","-80.51258850097656","-80.51258850097656","-80.51258850097656"
"421","-78.07923126220703","-78.07923126220703","-78.07923126220703"
"422","-79.86703491210938","-79.86703491210938","-79.86703491210938"
"423","-77.67333984375","-77.67333984375","-77.67333984375"
"424","-77.36071014404297","-77.36071014404297","-77.36071014404297"
"425","-77.17094421386719","-77.17094421386719","-77.17094421386719"
"426","-74.89392852783203","-74.89392852783203","-74.89392852783203"
"427","-76.5093765258789","-76.5093765258789","-76.5093765258789"
"428","-74.92607116699219","-74.92607116699219","-74.92607116699219"
"429","-74.62738037109375","-74.62738037109375","-74.62738037109375"
"430","-72.81988525390625","-72.81988525390625","-72.81988525390625"
"431","-71.15945434570312","-71.15945434570312","-71.15945434570312"
"432","-69.98401641845703","-69.98401641845703","-69.98401641845703"
"433","-69.53936767578125","-69.53936767578125","-69.53936767578125"
"434","-69.38116455078125","-69.38116455078125","-69.38116455078125"
"435","-67.25666809082031","-67.25666809082031","-67.25666809082031"
"436","-68.07392883300781","-68.07392883300781","-68.07392883300781"
"437","-66.24931335449219","-66.24931335449219","-66.24931335449219"
"438","-62.85149002075195","-62.85149002075195","-62.85149002075195"
"439","-63.039432525634766","-63.039432525634766","-63.039432525634766"
"440","-63.448875427246094","-63.448875427246094","-63.448875427246094"
"441","-61.0451774597168","-61.0451774597168","-61.0451774597168"
"442","-61.55739212036133","-61.55739212036133","-61.55739212036133"
"443","-61.3662223815918","-61.3662223815918","-61.3662223815918"
"444","-57.1778678894043","-57.1778678894043","-57.1778678894043"
"445","-57.34785079956055","-57.34785079956055","-57.34785079956055"
"446","-55.995635986328125","-55.995635986328125","-55.995635986328125"
"447","-55.278045654296875","-55.278045654296875","-55.278045654296875"
"448","-54.73985290527344","-54.73985290527344","-54.73985290527344"
"449","-52.391441345214844","-52.391441345214844","-52.391441345214844"
"450","-54.78475570678711","-54.78475570678711","-54.78475570678711"
"451","-52.53385925292969","-52.53385925292969","-52.53385925292969"
"452","-52.29844665527344","-52.29844665527344","-52.29844665527344"
"453","-48.90961837768555","-48.90961837768555","-48.90961837768555"
"454","-48.55873489379883","-48.55873489379883","-48.55873489379883"
"455","-47.4648323059082","-47.4648323059082","-47.4648323059082"
"456","-46.12019348144531","-46.12019348144531","-46.12019348144531"
"457","-44.60098648071289","-44.60098648071289","-44.60098648071289"
"458","-43.43214797973633","-43.43214797973633","-43.43214797973633"
"459","-43.600765228271484","-43.600765228271484","-43.600765228271484"
"460","-43.0583381652832","-43.0583381652832","-43.0583381652832"
"461","-40.2949104309082","-40.2949104309082","-40.2949104309082"
"462","-39.81454086303711","-39.81454086303711","-39.81454086303711"
"463","-37.629764556884766","-37.629764556884766","-37.629764556884766"
"464","-36.885231018066406","-36.885231018066406","-36.885231018066406"
"465","-36.49959945678711","-36.49959945678711","-36.49959945678711"
"466","-35.743919372558594","-35.743919372558594","-35.743919372558594"
"467","-33.7885627746582","-33.7885627746582","-33.7885627746582"
"468","-29.914155960083008","-29.914155960083008","-29.914155960083008"
"469","-29.171689987182617","-29.171689987182617","-29.171689987182617"
"470","-27.707578659057617","-27.707578659057617","-27.707578659057617"
"471","-27.410480499267578","-27.410480499267578","-27.410480499267578"
"472","-27.140087127685547","-27.140087127685547","-27.140087127685547"
"473","-25.9854679107666","-25.9854679107666","-25.9854679107666"
"474","-24.588180541992188","-24.588180541992188","-24.588180541992188"
"475","-23.529502868652344","-23.529502868652344","-23.529502868652344"
"476","-22.77008056640625","-22.77008056640625","-22.77008056640625"
"477","-20.538782119750977","-20.538782119750977","-20.538782119750977"
"478","-18.749338150024414","-18.749338150024414","-18.749338150024414"
"479","-17.383747100830078","-17.383747100830078","-17.383747100830078"
"480","-15.957414627075195","-15.957414627075195","-15.957414627075195"
"481","-13.578591346740723","-13.578591346740723","-13.578591346740723"
"482","-11.4629545211792","-11.4629545211792","-11.4629545211792"
"483","-12.046420097351074","-12.046420097351074","-12.046420097351074"
"484","-9.36213493347168","-9.36213493347168","-9.36213493347168"
"485","-9.309415817260742","-9.309415817260742","-9.309415817260742"
"486","-7.017569541931152","-7.017569541931152","-7.017569541931152"
"487","-5.291835784912109","-5.291835784912109","-5.291835784912109"
"488","-3.976459264755249","-3.976459264755249","-3.976459264755249"
"489","-2.5268666744232178","-2.5268666744232178","-2.5268666744232178"
"490","-0.882199227809906","-0.882199227809906","-0.882199227809906"
"491","0.23947009444236755","0.23947009444236755","0.23947009444236755"
"492","2.8062806129455566","2.8062806129455566","2.8062806129455566"
"493","3.639833450317383","3.639833450317383","3.639833450317383"
"494","5.097204208374023","5.097204208374023","5.097204208374023"
"495","6.457408428192139","6.457408428192139","6.457408428192139"
"496","8.157713890075684","8.157713890075684","8.157713890075684"
"497","8.590799331665039","8.590799331665039","8.590799331665039"
"498","10.818119049072266","10.818119049072266","10.818119049072266"
"499","11.304638862609863","11.304638862609863","11.304638862609863"