"Step","ctrl_cost 0.5 ant leg weight 1 - valid_returns","ctrl_cost 0.5 ant leg weight 1 - valid_returns__MIN","ctrl_cost 0.5 ant leg weight 1 - valid_returns__MAX"
"0","-84.0975570678711","-84.0975570678711","-84.0975570678711"
"1","-86.77156066894531","-86.77156066894531","-86.77156066894531"
"2","-81.51605224609375","-81.51605224609375","-81.51605224609375"
"3","-80.27208709716797","-80.27208709716797","-80.27208709716797"
"4","-75.52210235595703","-75.52210235595703","-75.52210235595703"
"5","-78.20098876953125","-78.20098876953125","-78.20098876953125"
"6","-75.26761627197266","-75.26761627197266","-75.26761627197266"
"7","-77.74054718017578","-77.74054718017578","-77.74054718017578"
"8","-75.24409484863281","-75.24409484863281","-75.24409484863281"
"9","-73.72935485839844","-73.72935485839844","-73.72935485839844"
"10","-74.02555084228516","-74.02555084228516","-74.02555084228516"
"11","-70.93757629394531","-70.93757629394531","-70.93757629394531"
"12","-70.79969024658203","-70.79969024658203","-70.79969024658203"
"13","-68.48068237304688","-68.48068237304688","-68.48068237304688"
"14","-68.5060043334961","-68.5060043334961","-68.5060043334961"
"15","-64.3335189819336","-64.3335189819336","-64.3335189819336"
"16","-64.77732849121094","-64.77732849121094","-64.77732849121094"
"17","-66.71861267089844","-66.71861267089844","-66.71861267089844"
"18","-62.94389724731445","-62.94389724731445","-62.94389724731445"
"19","-64.74852752685547","-64.74852752685547","-64.74852752685547"
"20","-65.45303344726562","-65.45303344726562","-65.45303344726562"
"21","-63.35581970214844","-63.35581970214844","-63.35581970214844"
"22","-58.615596771240234","-58.615596771240234","-58.615596771240234"
"23","-55.2592658996582","-55.2592658996582","-55.2592658996582"
"24","-55.2826042175293","-55.2826042175293","-55.2826042175293"
"25","-55.5430908203125","-55.5430908203125","-55.5430908203125"
"26","-54.98088073730469","-54.98088073730469","-54.98088073730469"
"27","-52.995635986328125","-52.995635986328125","-52.995635986328125"
"28","-52.69813537597656","-52.69813537597656","-52.69813537597656"
"29","-50.330474853515625","-50.330474853515625","-50.330474853515625"
"30","-48.902587890625","-48.902587890625","-48.902587890625"
"31","-51.224090576171875","-51.224090576171875","-51.224090576171875"
"32","-45.662620544433594","-45.662620544433594","-45.662620544433594"
"33","-48.03615188598633","-48.03615188598633","-48.03615188598633"
"34","-44.325557708740234","-44.325557708740234","-44.325557708740234"
"35","-45.3988151550293","-45.3988151550293","-45.3988151550293"
"36","-44.665958404541016","-44.665958404541016","-44.665958404541016"
"37","-40.9139289855957","-40.9139289855957","-40.9139289855957"
"38","-43.60356903076172","-43.60356903076172","-43.60356903076172"
"39","-40.42190933227539","-40.42190933227539","-40.42190933227539"
"40","-40.01035690307617","-40.01035690307617","-40.01035690307617"
"41","-41.42940902709961","-41.42940902709961","-41.42940902709961"
"42","-43.039398193359375","-43.039398193359375","-43.039398193359375"
"43","-40.38368606567383","-40.38368606567383","-40.38368606567383"
"44","-38.244544982910156","-38.244544982910156","-38.244544982910156"
"45","-41.19715881347656","-41.19715881347656","-41.19715881347656"
"46","-40.262229919433594","-40.262229919433594","-40.262229919433594"
"47","-38.028743743896484","-38.028743743896484","-38.028743743896484"
"48","-34.399940490722656","-34.399940490722656","-34.399940490722656"
"49","-34.54301452636719","-34.54301452636719","-34.54301452636719"
"50","-38.283897399902344","-38.283897399902344","-38.283897399902344"
"51","-36.9617805480957","-36.9617805480957","-36.9617805480957"
"52","-37.58445739746094","-37.58445739746094","-37.58445739746094"
"53","-38.015201568603516","-38.015201568603516","-38.015201568603516"
"54","-33.42436981201172","-33.42436981201172","-33.42436981201172"
"55","-36.188533782958984","-36.188533782958984","-36.188533782958984"
"56","-32.117130279541016","-32.117130279541016","-32.117130279541016"
"57","-36.70840835571289","-36.70840835571289","-36.70840835571289"
"58","-33.050132751464844","-33.050132751464844","-33.050132751464844"
"59","-34.41789627075195","-34.41789627075195","-34.41789627075195"
"60","-31.198591232299805","-31.198591232299805","-31.198591232299805"
"61","-32.725563049316406","-32.725563049316406","-32.725563049316406"
"62","-28.958589553833008","-28.958589553833008","-28.958589553833008"
"63","-31.121871948242188","-31.121871948242188","-31.121871948242188"
"64","-30.67974853515625","-30.67974853515625","-30.67974853515625"
"65","-30.727514266967773","-30.727514266967773","-30.727514266967773"
"66","-31.674053192138672","-31.674053192138672","-31.674053192138672"
"67","-27.603382110595703","-27.603382110595703","-27.603382110595703"
"68","-32.34181213378906","-32.34181213378906","-32.34181213378906"
"69","-29.504907608032227","-29.504907608032227","-29.504907608032227"
"70","-29.66210174560547","-29.66210174560547","-29.66210174560547"
"71","-29.307079315185547","-29.307079315185547","-29.307079315185547"
"72","-29.573890686035156","-29.573890686035156","-29.573890686035156"
"73","-28.923690795898438","-28.923690795898438","-28.923690795898438"
"74","-29.535932540893555","-29.535932540893555","-29.535932540893555"
"75","-29.763938903808594","-29.763938903808594","-29.763938903808594"
"76","-27.796768188476562","-27.796768188476562","-27.796768188476562"
"77","-26.576997756958008","-26.576997756958008","-26.576997756958008"
"78","-27.084169387817383","-27.084169387817383","-27.084169387817383"
"79","-26.266523361206055","-26.266523361206055","-26.266523361206055"
"80","-26.10063934326172","-26.10063934326172","-26.10063934326172"
"81","-26.2296199798584","-26.2296199798584","-26.2296199798584"
"82","-26.40579605102539","-26.40579605102539","-26.40579605102539"
"83","-25.671728134155273","-25.671728134155273","-25.671728134155273"
"84","-26.15640640258789","-26.15640640258789","-26.15640640258789"
"85","-26.1260929107666","-26.1260929107666","-26.1260929107666"
"86","-25.818471908569336","-25.818471908569336","-25.818471908569336"
"87","-26.96630096435547","-26.96630096435547","-26.96630096435547"
"88","-25.45966339111328","-25.45966339111328","-25.45966339111328"
"89","-26.147539138793945","-26.147539138793945","-26.147539138793945"
"90","-24.193403244018555","-24.193403244018555","-24.193403244018555"
"91","-24.798633575439453","-24.798633575439453","-24.798633575439453"
"92","-25.138813018798828","-25.138813018798828","-25.138813018798828"
"93","-24.910690307617188","-24.910690307617188","-24.910690307617188"
"94","-24.8841552734375","-24.8841552734375","-24.8841552734375"
"95","-24.759380340576172","-24.759380340576172","-24.759380340576172"
"96","-26.078683853149414","-26.078683853149414","-26.078683853149414"
"97","-25.138368606567383","-25.138368606567383","-25.138368606567383"
"98","-25.43720245361328","-25.43720245361328","-25.43720245361328"
"99","-22.643022537231445","-22.643022537231445","-22.643022537231445"
"100","-22.439228057861328","-22.439228057861328","-22.439228057861328"
"101","-22.862197875976562","-22.862197875976562","-22.862197875976562"
"102","-23.795785903930664","-23.795785903930664","-23.795785903930664"
"103","-22.101524353027344","-22.101524353027344","-22.101524353027344"
"104","-22.971942901611328","-22.971942901611328","-22.971942901611328"
"105","-23.325353622436523","-23.325353622436523","-23.325353622436523"
"106","-22.485641479492188","-22.485641479492188","-22.485641479492188"
"107","-22.67304039001465","-22.67304039001465","-22.67304039001465"
"108","-22.497953414916992","-22.497953414916992","-22.497953414916992"
"109","-22.720687866210938","-22.720687866210938","-22.720687866210938"
"110","-21.74124526977539","-21.74124526977539","-21.74124526977539"
"111","-21.483936309814453","-21.483936309814453","-21.483936309814453"
"112","-22.630170822143555","-22.630170822143555","-22.630170822143555"
"113","-21.550464630126953","-21.550464630126953","-21.550464630126953"
"114","-21.804485321044922","-21.804485321044922","-21.804485321044922"
"115","-21.328393936157227","-21.328393936157227","-21.328393936157227"
"116","-20.961748123168945","-20.961748123168945","-20.961748123168945"
"117","-21.472793579101562","-21.472793579101562","-21.472793579101562"
"118","-21.14264678955078","-21.14264678955078","-21.14264678955078"
"119","-20.496397018432617","-20.496397018432617","-20.496397018432617"
"120","-21.37472152709961","-21.37472152709961","-21.37472152709961"
"121","-20.350481033325195","-20.350481033325195","-20.350481033325195"
"122","-20.384672164916992","-20.384672164916992","-20.384672164916992"
"123","-21.52729034423828","-21.52729034423828","-21.52729034423828"
"124","-20.455869674682617","-20.455869674682617","-20.455869674682617"
"125","-21.633588790893555","-21.633588790893555","-21.633588790893555"
"126","-21.6947078704834","-21.6947078704834","-21.6947078704834"
"127","-19.67091941833496","-19.67091941833496","-19.67091941833496"
"128","-19.861835479736328","-19.861835479736328","-19.861835479736328"
"129","-20.43214988708496","-20.43214988708496","-20.43214988708496"
"130","-20.744396209716797","-20.744396209716797","-20.744396209716797"
"131","-19.77196502685547","-19.77196502685547","-19.77196502685547"
"132","-19.441160202026367","-19.441160202026367","-19.441160202026367"
"133","-19.710010528564453","-19.710010528564453","-19.710010528564453"
"134","-18.777605056762695","-18.777605056762695","-18.777605056762695"
"135","-19.289289474487305","-19.289289474487305","-19.289289474487305"
"136","-19.358030319213867","-19.358030319213867","-19.358030319213867"
"137","-18.33718490600586","-18.33718490600586","-18.33718490600586"
"138","-18.232498168945312","-18.232498168945312","-18.232498168945312"
"139","-18.824962615966797","-18.824962615966797","-18.824962615966797"
"140","-19.33441162109375","-19.33441162109375","-19.33441162109375"
"141","-17.857074737548828","-17.857074737548828","-17.857074737548828"
"142","-18.884366989135742","-18.884366989135742","-18.884366989135742"
"143","-19.5378360748291","-19.5378360748291","-19.5378360748291"
"144","-18.273496627807617","-18.273496627807617","-18.273496627807617"
"145","-18.038583755493164","-18.038583755493164","-18.038583755493164"
"146","-17.95708656311035","-17.95708656311035","-17.95708656311035"
"147","-18.524385452270508","-18.524385452270508","-18.524385452270508"
"148","-17.726879119873047","-17.726879119873047","-17.726879119873047"
"149","-17.282386779785156","-17.282386779785156","-17.282386779785156"
"150","-18.045726776123047","-18.045726776123047","-18.045726776123047"
"151","-18.104358673095703","-18.104358673095703","-18.104358673095703"
"152","-18.00051498413086","-18.00051498413086","-18.00051498413086"
"153","-17.452198028564453","-17.452198028564453","-17.452198028564453"
"154","-17.759933471679688","-17.759933471679688","-17.759933471679688"
"155","-16.902606964111328","-16.902606964111328","-16.902606964111328"
"156","-18.7360897064209","-18.7360897064209","-18.7360897064209"
"157","-16.97174644470215","-16.97174644470215","-16.97174644470215"
"158","-17.085081100463867","-17.085081100463867","-17.085081100463867"
"159","-16.90105628967285","-16.90105628967285","-16.90105628967285"
"160","-16.84296989440918","-16.84296989440918","-16.84296989440918"
"161","-16.566869735717773","-16.566869735717773","-16.566869735717773"
"162","-16.48578643798828","-16.48578643798828","-16.48578643798828"
"163","-15.99310302734375","-15.99310302734375","-15.99310302734375"
"164","-16.47390365600586","-16.47390365600586","-16.47390365600586"
"165","-16.04989242553711","-16.04989242553711","-16.04989242553711"
"166","-16.461671829223633","-16.461671829223633","-16.461671829223633"
"167","-16.026077270507812","-16.026077270507812","-16.026077270507812"
"168","-16.143770217895508","-16.143770217895508","-16.143770217895508"
"169","-16.614459991455078","-16.614459991455078","-16.614459991455078"
"170","-15.905089378356934","-15.905089378356934","-15.905089378356934"
"171","-16.83222198486328","-16.83222198486328","-16.83222198486328"
"172","-16.02910804748535","-16.02910804748535","-16.02910804748535"
"173","-15.877697944641113","-15.877697944641113","-15.877697944641113"
"174","-15.953350067138672","-15.953350067138672","-15.953350067138672"
"175","-15.638960838317871","-15.638960838317871","-15.638960838317871"
"176","-15.39047622680664","-15.39047622680664","-15.39047622680664"
"177","-15.195671081542969","-15.195671081542969","-15.195671081542969"
"178","-14.642334938049316","-14.642334938049316","-14.642334938049316"
"179","-15.363234519958496","-15.363234519958496","-15.363234519958496"
"180","-15.636563301086426","-15.636563301086426","-15.636563301086426"
"181","-13.697486877441406","-13.697486877441406","-13.697486877441406"
"182","-14.511313438415527","-14.511313438415527","-14.511313438415527"
"183","-14.366105079650879","-14.366105079650879","-14.366105079650879"
"184","-14.77099609375","-14.77099609375","-14.77099609375"
"185","-14.991337776184082","-14.991337776184082","-14.991337776184082"
"186","-14.062383651733398","-14.062383651733398","-14.062383651733398"
"187","-13.825591087341309","-13.825591087341309","-13.825591087341309"
"188","-13.735481262207031","-13.735481262207031","-13.735481262207031"
"189","-14.088885307312012","-14.088885307312012","-14.088885307312012"
"190","-14.374371528625488","-14.374371528625488","-14.374371528625488"
"191","-13.604211807250977","-13.604211807250977","-13.604211807250977"
"192","-15.022934913635254","-15.022934913635254","-15.022934913635254"
"193","-14.458266258239746","-14.458266258239746","-14.458266258239746"
"194","-13.846039772033691","-13.846039772033691","-13.846039772033691"
"195","-14.21701431274414","-14.21701431274414","-14.21701431274414"
"196","-13.545427322387695","-13.545427322387695","-13.545427322387695"
"197","-14.723919868469238","-14.723919868469238","-14.723919868469238"
"198","-13.528420448303223","-13.528420448303223","-13.528420448303223"
"199","-13.111275672912598","-13.111275672912598","-13.111275672912598"
"200","-13.57830810546875","-13.57830810546875","-13.57830810546875"
"201","-13.324689865112305","-13.324689865112305","-13.324689865112305"
"202","-13.902396202087402","-13.902396202087402","-13.902396202087402"
"203","-13.172263145446777","-13.172263145446777","-13.172263145446777"
"204","-12.711665153503418","-12.711665153503418","-12.711665153503418"
"205","-12.700867652893066","-12.700867652893066","-12.700867652893066"
"206","-13.1551513671875","-13.1551513671875","-13.1551513671875"
"207","-12.774492263793945","-12.774492263793945","-12.774492263793945"
"208","-13.11392593383789","-13.11392593383789","-13.11392593383789"
"209","-12.334668159484863","-12.334668159484863","-12.334668159484863"
"210","-12.602787017822266","-12.602787017822266","-12.602787017822266"
"211","-11.695722579956055","-11.695722579956055","-11.695722579956055"
"212","-12.067962646484375","-12.067962646484375","-12.067962646484375"
"213","-12.36126708984375","-12.36126708984375","-12.36126708984375"
"214","-11.677895545959473","-11.677895545959473","-11.677895545959473"
"215","-11.36123275756836","-11.36123275756836","-11.36123275756836"
"216","-11.5295991897583","-11.5295991897583","-11.5295991897583"
"217","-11.7374849319458","-11.7374849319458","-11.7374849319458"
"218","-11.574626922607422","-11.574626922607422","-11.574626922607422"
"219","-11.410058975219727","-11.410058975219727","-11.410058975219727"
"220","-11.243180274963379","-11.243180274963379","-11.243180274963379"
"221","-10.981005668640137","-10.981005668640137","-10.981005668640137"
"222","-10.924677848815918","-10.924677848815918","-10.924677848815918"
"223","-11.434626579284668","-11.434626579284668","-11.434626579284668"
"224","-11.438276290893555","-11.438276290893555","-11.438276290893555"
"225","-11.068613052368164","-11.068613052368164","-11.068613052368164"
"226","-11.007076263427734","-11.007076263427734","-11.007076263427734"
"227","-11.498135566711426","-11.498135566711426","-11.498135566711426"
"228","-10.357651710510254","-10.357651710510254","-10.357651710510254"
"229","-10.085786819458008","-10.085786819458008","-10.085786819458008"
"230","-10.445430755615234","-10.445430755615234","-10.445430755615234"
"231","-10.003952026367188","-10.003952026367188","-10.003952026367188"
"232","-10.403547286987305","-10.403547286987305","-10.403547286987305"
"233","-9.581076622009277","-9.581076622009277","-9.581076622009277"
"234","-10.026541709899902","-10.026541709899902","-10.026541709899902"
"235","-9.646944999694824","-9.646944999694824","-9.646944999694824"
"236","-9.129737854003906","-9.129737854003906","-9.129737854003906"
"237","-10.193709373474121","-10.193709373474121","-10.193709373474121"
"238","-9.141927719116211","-9.141927719116211","-9.141927719116211"
"239","-8.453105926513672","-8.453105926513672","-8.453105926513672"
"240","-9.60328483581543","-9.60328483581543","-9.60328483581543"
"241","-9.076294898986816","-9.076294898986816","-9.076294898986816"
"242","-9.424439430236816","-9.424439430236816","-9.424439430236816"
"243","-7.9217448234558105","-7.9217448234558105","-7.9217448234558105"
"244","-8.302725791931152","-8.302725791931152","-8.302725791931152"
"245","-8.523173332214355","-8.523173332214355","-8.523173332214355"
"246","-8.335865020751953","-8.335865020751953","-8.335865020751953"
"247","-8.016480445861816","-8.016480445861816","-8.016480445861816"
"248","-7.669389724731445","-7.669389724731445","-7.669389724731445"
"249","-8.667681694030762","-8.667681694030762","-8.667681694030762"
"250","-7.699730396270752","-7.699730396270752","-7.699730396270752"
"251","-8.636829376220703","-8.636829376220703","-8.636829376220703"
"252","-7.091073989868164","-7.091073989868164","-7.091073989868164"
"253","-6.975449085235596","-6.975449085235596","-6.975449085235596"
"254","-7.031562328338623","-7.031562328338623","-7.031562328338623"
"255","-7.486224174499512","-7.486224174499512","-7.486224174499512"
"256","-6.5472893714904785","-6.5472893714904785","-6.5472893714904785"
"257","-6.980556488037109","-6.980556488037109","-6.980556488037109"
"258","-6.615170955657959","-6.615170955657959","-6.615170955657959"
"259","-6.560657978057861","-6.560657978057861","-6.560657978057861"
"260","-6.111094951629639","-6.111094951629639","-6.111094951629639"
"261","-6.270398139953613","-6.270398139953613","-6.270398139953613"
"262","-6.0603346824646","-6.0603346824646","-6.0603346824646"
"263","-5.983011245727539","-5.983011245727539","-5.983011245727539"
"264","-5.851627349853516","-5.851627349853516","-5.851627349853516"
"265","-5.519774913787842","-5.519774913787842","-5.519774913787842"
"266","-5.576915264129639","-5.576915264129639","-5.576915264129639"
"267","-5.520193099975586","-5.520193099975586","-5.520193099975586"
"268","-5.771982192993164","-5.771982192993164","-5.771982192993164"
"269","-5.016391754150391","-5.016391754150391","-5.016391754150391"
"270","-4.613866806030273","-4.613866806030273","-4.613866806030273"
"271","-5.245893478393555","-5.245893478393555","-5.245893478393555"
"272","-4.389170169830322","-4.389170169830322","-4.389170169830322"
"273","-3.984494209289551","-3.984494209289551","-3.984494209289551"
"274","-4.998180866241455","-4.998180866241455","-4.998180866241455"
"275","-4.643373489379883","-4.643373489379883","-4.643373489379883"
"276","-4.001039981842041","-4.001039981842041","-4.001039981842041"
"277","-3.4999799728393555","-3.4999799728393555","-3.4999799728393555"
"278","-3.9247591495513916","-3.9247591495513916","-3.9247591495513916"
"279","-3.2311878204345703","-3.2311878204345703","-3.2311878204345703"
"280","-3.704817771911621","-3.704817771911621","-3.704817771911621"
"281","-2.9569778442382812","-2.9569778442382812","-2.9569778442382812"
"282","-3.3653082847595215","-3.3653082847595215","-3.3653082847595215"
"283","-2.900916337966919","-2.900916337966919","-2.900916337966919"
"284","-3.495945930480957","-3.495945930480957","-3.495945930480957"
"285","-2.6697821617126465","-2.6697821617126465","-2.6697821617126465"
"286","-2.595881938934326","-2.595881938934326","-2.595881938934326"
"287","-2.0654592514038086","-2.0654592514038086","-2.0654592514038086"
"288","-1.9421823024749756","-1.9421823024749756","-1.9421823024749756"
"289","-1.7115381956100464","-1.7115381956100464","-1.7115381956100464"
"290","-1.2505284547805786","-1.2505284547805786","-1.2505284547805786"
"291","-1.5367852449417114","-1.5367852449417114","-1.5367852449417114"
"292","-1.2718398571014404","-1.2718398571014404","-1.2718398571014404"
"293","-1.1908172369003296","-1.1908172369003296","-1.1908172369003296"
"294","-0.854748010635376","-0.854748010635376","-0.854748010635376"
"295","-0.8768472075462341","-0.8768472075462341","-0.8768472075462341"
"296","-0.23561199009418488","-0.23561199009418488","-0.23561199009418488"
"297","-0.29650601744651794","-0.29650601744651794","-0.29650601744651794"
"298","-0.4379618763923645","-0.4379618763923645","-0.4379618763923645"
"299","0.033828943967819214","0.033828943967819214","0.033828943967819214"
"300","-0.35689765214920044","-0.35689765214920044","-0.35689765214920044"
"301","-0.3115891218185425","-0.3115891218185425","-0.3115891218185425"
"302","-0.23692846298217773","-0.23692846298217773","-0.23692846298217773"
"303","0.16508744657039642","0.16508744657039642","0.16508744657039642"
"304","0.9289431571960449","0.9289431571960449","0.9289431571960449"
"305","-0.2764383852481842","-0.2764383852481842","-0.2764383852481842"
"306","1.7407037019729614","1.7407037019729614","1.7407037019729614"
"307","1.0413315296173096","1.0413315296173096","1.0413315296173096"
"308","1.553556203842163","1.553556203842163","1.553556203842163"
"309","1.3253636360168457","1.3253636360168457","1.3253636360168457"
"310","1.6882834434509277","1.6882834434509277","1.6882834434509277"
"311","1.7534600496292114","1.7534600496292114","1.7534600496292114"
"312","2.2433979511260986","2.2433979511260986","2.2433979511260986"
"313","2.09602689743042","2.09602689743042","2.09602689743042"
"314","2.114032506942749","2.114032506942749","2.114032506942749"
"315","2.0890586376190186","2.0890586376190186","2.0890586376190186"
"316","3.100945234298706","3.100945234298706","3.100945234298706"
"317","2.97721791267395","2.97721791267395","2.97721791267395"
"318","2.987764835357666","2.987764835357666","2.987764835357666"
"319","3.4642746448516846","3.4642746448516846","3.4642746448516846"
"320","3.4152638912200928","3.4152638912200928","3.4152638912200928"
"321","3.458801031112671","3.458801031112671","3.458801031112671"
"322","3.581754684448242","3.581754684448242","3.581754684448242"
"323","3.328566312789917","3.328566312789917","3.328566312789917"
"324","4.1651225090026855","4.1651225090026855","4.1651225090026855"
"325","4.231366157531738","4.231366157531738","4.231366157531738"
"326","4.5667524337768555","4.5667524337768555","4.5667524337768555"
"327","4.648318767547607","4.648318767547607","4.648318767547607"
"328","4.440042018890381","4.440042018890381","4.440042018890381"
"329","4.997811794281006","4.997811794281006","4.997811794281006"
"330","4.98661470413208","4.98661470413208","4.98661470413208"
"331","5.751748085021973","5.751748085021973","5.751748085021973"
"332","5.482775688171387","5.482775688171387","5.482775688171387"
"333","5.446664810180664","5.446664810180664","5.446664810180664"
"334","5.534268856048584","5.534268856048584","5.534268856048584"
"335","5.708877086639404","5.708877086639404","5.708877086639404"
"336","6.661355972290039","6.661355972290039","6.661355972290039"
"337","6.772548675537109","6.772548675537109","6.772548675537109"
"338","6.719058036804199","6.719058036804199","6.719058036804199"
"339","6.371983051300049","6.371983051300049","6.371983051300049"
"340","6.933350086212158","6.933350086212158","6.933350086212158"
"341","7.22285270690918","7.22285270690918","7.22285270690918"
"342","7.920345306396484","7.920345306396484","7.920345306396484"
"343","7.600091457366943","7.600091457366943","7.600091457366943"
"344","7.108680248260498","7.108680248260498","7.108680248260498"
"345","8.106013298034668","8.106013298034668","8.106013298034668"
"346","8.250594139099121","8.250594139099121","8.250594139099121"
"347","8.725980758666992","8.725980758666992","8.725980758666992"
"348","9.127350807189941","9.127350807189941","9.127350807189941"
"349","9.719493865966797","9.719493865966797","9.719493865966797"
"350","9.612744331359863","9.612744331359863","9.612744331359863"
"351","10.413430213928223","10.413430213928223","10.413430213928223"
"352","9.94042682647705","9.94042682647705","9.94042682647705"
"353","10.535758972167969","10.535758972167969","10.535758972167969"
"354","10.995830535888672","10.995830535888672","10.995830535888672"
"355","10.869287490844727","10.869287490844727","10.869287490844727"
"356","11.477782249450684","11.477782249450684","11.477782249450684"
"357","11.714011192321777","11.714011192321777","11.714011192321777"
"358","12.045305252075195","12.045305252075195","12.045305252075195"
"359","11.903273582458496","11.903273582458496","11.903273582458496"
"360","12.409832000732422","12.409832000732422","12.409832000732422"
"361","13.123102188110352","13.123102188110352","13.123102188110352"
"362","12.731243133544922","12.731243133544922","12.731243133544922"
"363","13.434517860412598","13.434517860412598","13.434517860412598"
"364","12.796278953552246","12.796278953552246","12.796278953552246"
"365","12.789011001586914","12.789011001586914","12.789011001586914"
"366","13.85550308227539","13.85550308227539","13.85550308227539"
"367","14.453845977783203","14.453845977783203","14.453845977783203"
"368","14.814813613891602","14.814813613891602","14.814813613891602"
"369","14.18945026397705","14.18945026397705","14.18945026397705"
"370","15.592028617858887","15.592028617858887","15.592028617858887"
"371","14.066472053527832","14.066472053527832","14.066472053527832"
"372","16.616313934326172","16.616313934326172","16.616313934326172"
"373","15.426535606384277","15.426535606384277","15.426535606384277"
"374","16.661705017089844","16.661705017089844","16.661705017089844"
"375","16.865827560424805","16.865827560424805","16.865827560424805"
"376","17.10576629638672","17.10576629638672","17.10576629638672"
"377","16.94791603088379","16.94791603088379","16.94791603088379"
"378","17.132131576538086","17.132131576538086","17.132131576538086"
"379","18.333791732788086","18.333791732788086","18.333791732788086"
"380","18.89914321899414","18.89914321899414","18.89914321899414"
"381","18.639062881469727","18.639062881469727","18.639062881469727"
"382","18.356464385986328","18.356464385986328","18.356464385986328"
"383","19.786426544189453","19.786426544189453","19.786426544189453"
"384","19.74794578552246","19.74794578552246","19.74794578552246"
"385","20.671098709106445","20.671098709106445","20.671098709106445"
"386","20.821489334106445","20.821489334106445","20.821489334106445"
"387","20.248088836669922","20.248088836669922","20.248088836669922"
"388","20.577674865722656","20.577674865722656","20.577674865722656"
"389","20.015060424804688","20.015060424804688","20.015060424804688"
"390","21.525917053222656","21.525917053222656","21.525917053222656"
"391","21.172222137451172","21.172222137451172","21.172222137451172"
"392","22.584909439086914","22.584909439086914","22.584909439086914"
"393","22.607484817504883","22.607484817504883","22.607484817504883"
"394","23.985363006591797","23.985363006591797","23.985363006591797"
"395","24.259544372558594","24.259544372558594","24.259544372558594"
"396","25.665220260620117","25.665220260620117","25.665220260620117"
"397","24.206466674804688","24.206466674804688","24.206466674804688"
"398","26.837648391723633","26.837648391723633","26.837648391723633"
"399","27.56368637084961","27.56368637084961","27.56368637084961"
"400","27.3330020904541","27.3330020904541","27.3330020904541"
"401","28.36575698852539","28.36575698852539","28.36575698852539"
"402","28.312448501586914","28.312448501586914","28.312448501586914"
"403","28.159351348876953","28.159351348876953","28.159351348876953"
"404","29.045753479003906","29.045753479003906","29.045753479003906"
"405","30.287919998168945","30.287919998168945","30.287919998168945"
"406","29.476774215698242","29.476774215698242","29.476774215698242"
"407","32.80045700073242","32.80045700073242","32.80045700073242"
"408","34.231910705566406","34.231910705566406","34.231910705566406"
"409","30.766454696655273","30.766454696655273","30.766454696655273"
"410","33.4903450012207","33.4903450012207","33.4903450012207"
"411","32.657310485839844","32.657310485839844","32.657310485839844"
"412","35.04399490356445","35.04399490356445","35.04399490356445"
"413","35.08293151855469","35.08293151855469","35.08293151855469"
"414","37.028419494628906","37.028419494628906","37.028419494628906"
"415","34.922401428222656","34.922401428222656","34.922401428222656"
"416","36.806724548339844","36.806724548339844","36.806724548339844"
"417","36.50599670410156","36.50599670410156","36.50599670410156"
"418","38.105438232421875","38.105438232421875","38.105438232421875"
"419","36.45927429199219","36.45927429199219","36.45927429199219"
"420","39.834861755371094","39.834861755371094","39.834861755371094"
"421","41.82237243652344","41.82237243652344","41.82237243652344"
"422","39.0914421081543","39.0914421081543","39.0914421081543"
"423","40.81148147583008","40.81148147583008","40.81148147583008"
"424","41.169227600097656","41.169227600097656","41.169227600097656"
"425","43.3057861328125","43.3057861328125","43.3057861328125"
"426","45.593257904052734","45.593257904052734","45.593257904052734"
"427","44.616519927978516","44.616519927978516","44.616519927978516"
"428","47.1425666809082","47.1425666809082","47.1425666809082"
"429","48.13211441040039","48.13211441040039","48.13211441040039"
"430","49.8366813659668","49.8366813659668","49.8366813659668"
"431","45.422874450683594","45.422874450683594","45.422874450683594"
"432","48.007476806640625","48.007476806640625","48.007476806640625"
"433","48.96754837036133","48.96754837036133","48.96754837036133"
"434","48.933311462402344","48.933311462402344","48.933311462402344"
"435","52.62504577636719","52.62504577636719","52.62504577636719"
"436","51.943260192871094","51.943260192871094","51.943260192871094"
"437","52.43592834472656","52.43592834472656","52.43592834472656"
"438","55.11820983886719","55.11820983886719","55.11820983886719"
"439","56.654170989990234","56.654170989990234","56.654170989990234"
"440","55.75481414794922","55.75481414794922","55.75481414794922"
"441","54.709659576416016","54.709659576416016","54.709659576416016"
"442","58.895877838134766","58.895877838134766","58.895877838134766"
"443","55.19697570800781","55.19697570800781","55.19697570800781"
"444","58.09294128417969","58.09294128417969","58.09294128417969"
"445","59.45621109008789","59.45621109008789","59.45621109008789"
"446","59.609588623046875","59.609588623046875","59.609588623046875"
"447","58.56734848022461","58.56734848022461","58.56734848022461"
"448","62.188636779785156","62.188636779785156","62.188636779785156"
"449","64.42692565917969","64.42692565917969","64.42692565917969"
"450","61.84589767456055","61.84589767456055","61.84589767456055"
"451","64.37905883789062","64.37905883789062","64.37905883789062"
"452","63.937522888183594","63.937522888183594","63.937522888183594"
"453","65.61547088623047","65.61547088623047","65.61547088623047"
"454","67.50558471679688","67.50558471679688","67.50558471679688"
"455","64.67626190185547","64.67626190185547","64.67626190185547"
"456","71.2992935180664","71.2992935180664","71.2992935180664"
"457","67.75421142578125","67.75421142578125","67.75421142578125"
"458","65.90270233154297","65.90270233154297","65.90270233154297"
"459","69.71720886230469","69.71720886230469","69.71720886230469"
"460","72.06820678710938","72.06820678710938","72.06820678710938"
"461","70.7990493774414","70.7990493774414","70.7990493774414"
"462","73.13562774658203","73.13562774658203","73.13562774658203"
"463","73.30593872070312","73.30593872070312","73.30593872070312"
"464","74.4771957397461","74.4771957397461","74.4771957397461"
"465","73.95095825195312","73.95095825195312","73.95095825195312"
"466","73.41862487792969","73.41862487792969","73.41862487792969"
"467","75.6951675415039","75.6951675415039","75.6951675415039"
"468","76.7815933227539","76.7815933227539","76.7815933227539"
"469","79.52162170410156","79.52162170410156","79.52162170410156"
"470","79.66263580322266","79.66263580322266","79.66263580322266"
"471","78.88665008544922","78.88665008544922","78.88665008544922"
"472","81.60635375976562","81.60635375976562","81.60635375976562"
"473","79.97895050048828","79.97895050048828","79.97895050048828"
"474","80.0815658569336","80.0815658569336","80.0815658569336"
"475","82.89663696289062","82.89663696289062","82.89663696289062"
"476","83.0625228881836","83.0625228881836","83.0625228881836"
"477","84.96739959716797","84.96739959716797","84.96739959716797"
"478","84.02591705322266","84.02591705322266","84.02591705322266"
"479","86.81221008300781","86.81221008300781","86.81221008300781"
"480","89.66865539550781","89.66865539550781","89.66865539550781"
"481","87.09925079345703","87.09925079345703","87.09925079345703"
"482","90.79388427734375","90.79388427734375","90.79388427734375"
"483","91.56749725341797","91.56749725341797","91.56749725341797"
"484","90.2308120727539","90.2308120727539","90.2308120727539"
"485","90.04070281982422","90.04070281982422","90.04070281982422"
"486","93.4794921875","93.4794921875","93.4794921875"
"487","92.72750091552734","92.72750091552734","92.72750091552734"
"488","96.26300811767578","96.26300811767578","96.26300811767578"
"489","96.33154296875","96.33154296875","96.33154296875"
"490","95.36943054199219","95.36943054199219","95.36943054199219"
"491","98.40507507324219","98.40507507324219","98.40507507324219"
"492","97.00352478027344","97.00352478027344","97.00352478027344"
"493","96.35446166992188","96.35446166992188","96.35446166992188"
"494","99.51240539550781","99.51240539550781","99.51240539550781"
"495","98.4081039428711","98.4081039428711","98.4081039428711"
"496","102.48982238769531","102.48982238769531","102.48982238769531"
"497","102.47299194335938","102.47299194335938","102.47299194335938"
"498","103.6630859375","103.6630859375","103.6630859375"
"499","102.32048797607422","102.32048797607422","102.32048797607422"